svm_type c_svc
kernel_type linear
nr_class 2
total_sv 373
rho 0.18384728310818627
label 1 2
nr_sv 156 217
SV
0.22492433070499682 75:0.8375145170353578 483:1.0 556:1.0 557:1.0 1207:1.0 1332:1.0 
0.6320568311499026 75:0.9187573233922434 1208:1.0 1333:1.0 
1.0 198:1.0 
0.1615204833539199 229:1.0 619:1.0 1334:1.0 1335:1.0 1336:1.0 1337:1.0 1338:1.0 1339:1.0 1340:1.0 
1.0 1214:1.0 
0.1285004059110509 75:1.0 106:1.0 229:0.8837347869786316 
1.0 1215:1.0 
0.6613702613508211 486:0.888888888888889 1216:1.0 
1.0 106:0.899590786432298 
1.0 
0.21684327281133767 114:1.0 257:1.0 1220:1.0 
1.0 1370:1.0 
1.0 
0.041458476999151554 47:1.0 514:1.0 620:1.0 1220:1.0 1370:1.0 1371:1.0 
0.019302336460707965 114:0.9150028323853893 488:1.0 559:0.8770187943010418 1217:1.0 1364:1.0 1365:1.0 
0.46266109599461036 1220:1.0 1372:1.0 
1.0 559:1.0 
1.0 1218:1.0 
0.5918417173192968 489:1.0 490:1.0 
1.0 123:1.0 
1.0 
0.14349259311925525 43:1.0 75:0.8375145170353578 259:1.0 260:1.0 485:0.8837347869786316 1360:1.0 1389:1.0 1390:1.0 1391:1.0 
1.0 
1.0 
1.0 1392:1.0 
0.5917856088656975 1221:1.0 1393:1.0 
0.0710609965388833 20:1.0 107:1.0 1210:1.0 1337:1.0 1338:1.0 
0.35870463136728575 565:1.0 566:1.0 1325:1.0 1326:1.0 
1.0 87:1.0 
0.06009451429426099 43:0.9187573233922434 132:1.0 200:1.0 261:1.0 565:1.0 
1.0 16:0.9299890311033362 
0.036237611471910076 132:1.0 199:1.0 261:1.0 565:1.0 567:1.0 1235:1.0 1395:1.0 1396:1.0 1397:1.0 1398:1.0 1399:1.0 1400:1.0 1401:1.0 
1.0 1239:0.262113057781329 
0.2934148970555798 20:1.0 200:1.0 1240:1.0 
1.0 1408:1.0 
0.5919207465586723 1409:1.0 1410:1.0 
1.0 
0.32303640929658933 263:1.0 558:1.0 1222:1.0 
0.14041505834046797 32:1.0 84:1.0 204:1.0 1241:1.0 1418:1.0 1419:1.0 
1.0 
0.537649092995489 8:1.0 38:1.0 
1.0 
0.015153905735045164 3:1.0 110:1.0 572:1.0 1245:1.0 
1.0 41:1.0 
1.0 
0.10431845375456755 28:1.0 235:1.0 1434:1.0 1435:1.0 
1.0 
1.0 40:1.0 
0.44776298915122265 30:1.0 77:1.0 134:1.0 
0.16243429882662394 44:1.0 60:1.0 238:1.0 1253:1.0 1442:1.0 
1.0 
1.0 
0.051336852699445136 9:1.0 22:1.0 68:1.0 1256:1.0 
1.0 
0.01619051824524994 4:1.0 26:1.0 51:1.0 258:1.0 1451:1.0 1458:1.0 
0.2010433810799274 61:1.0 208:1.0 273:1.0 
1.0 
0.15704498326044625 12:1.0 42:1.0 64:1.0 67:1.0 
0.1837345975449486 25:1.0 
0.09115559284915546 11:1.0 15:1.0 271:1.0 
1.0 
0.17059459836753846 68:1.0 203:1.0 249:1.0 1476:0.8674150637662372 1477:0.8674150637662372 1478:1.0 1479:1.0 
1.0 
0.045896472476018794 19:1.0 279:1.0 597:1.0 1480:1.0 
0.02623809131616584 41:1.0 88:1.0 126:1.0 133:1.0 
0.4463099255529975 33:1.0 61:1.0 
0.07864160069044386 41:1.0 53:1.0 
0.5918395612191207 127:1.0 206:1.0 
0.07740182878091245 60:1.0 199:1.0 274:1.0 280:1.0 517:1.0 599:1.0 1341:1.0 1485:1.0 
1.0 
1.0 
0.08292492831050381 0:0.6666668766738892 67:1.0 584:1.0 
0.23348975837532457 4:1.0 211:1.0 504:1.0 
0.5260838312156096 17:1.0 85:1.0 
1.0 25:1.0 
0.5919181693238523 65:1.0 91:1.0 
0.2959429976780776 213:1.0 494:1.0 1276:1.0 1498:1.0 
0.061267798946460776 66:1.0 80:1.0 1484:1.0 
0.18646473750540032 6:1.0 12:1.0 1281:1.0 1323:1.0 1467:1.0 
0.07448454469069964 9:1.0 29:1.0 34:1.0 138:1.0 139:1.0 1241:1.0 1418:1.0 
0.18374320815234602 36:1.0 
0.18198224691703654 9:1.0 596:1.0 608:1.0 1262:1.0 1263:1.0 
0.5918017517693923 593:1.0 594:1.0 
0.05642888938470701 0:0.6666668766738892 35:1.0 62:1.0 1280:1.0 1283:1.0 
0.5398414452366624 79:1.0 235:1.0 
0.022996090176022776 18:1.0 33:1.0 44:1.0 68:1.0 242:1.0 243:1.0 
0.03926043036058319 8:1.0 37:1.0 
0.5918725390099109 52:1.0 506:1.0 
1.0 
0.06422791255302134 3:1.0 11:1.0 252:1.0 285:1.0 1286:1.0 
1.0 13:1.0 
1.1684676116331346E-4 8:1.0 37:1.0 109:1.0 205:1.0 591:1.0 
1.0 0:1.0 
1.0 
1.0 
0.503871920344011 11:0.933640672309698 568:0.8770187943010418 
0.0917719103512154 21:1.0 1452:1.0 
1.0 
1.0 1242:1.0 
0.3761783894967372 22:1.0 23:1.0 24:1.0 
0.1486480556739695 15:1.0 83:1.0 251:1.0 610:1.0 
1.0 66:1.0 
0.0947216991939478 12:1.0 48:1.0 236:1.0 265:1.0 573:1.0 581:1.0 584:1.0 615:1.0 
1.0 19:1.0 
0.13155308353631934 17:1.0 128:1.0 130:1.0 232:1.0 1422:1.0 
0.05895141209826343 3:1.0 20:1.0 77:1.0 516:1.0 
1.0 
1.0 
1.0 
0.03436153715294134 0:1.0 131:1.0 
0.19156705462433782 42:1.0 60:1.0 62:1.0 599:1.0 
0.39465647528148157 76:1.0 141:1.0 1289:1.0 
0.18371712068071044 1:1.0 
0.19322091399815292 26:1.0 44:1.0 51:1.0 283:1.0 1249:1.0 
0.18354297561156907 278:1.0 
1.0 110:1.0 
0.0670402373588792 61:1.0 214:1.0 273:1.0 492:1.0 600:1.0 
1.0 36:1.0 
0.06928363349940833 8:1.0 86:1.0 90:1.0 108:1.0 1275:1.0 
1.0 1311:1.0 
0.2605973917755084 32:1.0 86:1.0 230:1.0 231:1.0 
0.004107934574619934 9:1.0 22:1.0 244:1.0 245:1.0 
0.015797115675772105 20:1.0 583:1.0 614:1.0 1259:1.0 1486:1.0 
0.14402426239660585 9:1.0 241:1.0 244:1.0 245:1.0 590:1.0 1314:1.0 
0.22688608397295978 11:1.0 28:1.0 
1.0 1:1.0 
1.0 21:1.0 
0.20418765505691788 2:1.0 
1.0 
1.0 278:1.0 
0.5840230870179456 614:1.0 1416:1.0 
1.0 
0.24701869975751117 10:1.0 
0.46695206150628676 4:1.0 78:1.0 
0.4979703574401878 37:1.0 251:1.0 
0.9793791171853307 2:1.0 
0.022119823147921665 0:1.0 18:1.0 57:1.0 137:1.0 1268:1.0 1272:1.0 1324:1.0 
1.0 10:0.9367361486827163 
1.0 
0.17492415194475663 255:1.0 263:1.0 616:1.0 
0.33629117061036706 255:1.0 256:1.0 617:1.0 
0.18363408618557456 1322:1.0 
0.36204141632906295 254:1.0 618:1.0 1363:1.0 
1.0 1322:1.0 
0.3947395113896793 207:1.0 493:1.0 
0.3944345138418896 491:1.0 493:1.0 
0.09751273175219274 20:1.0 55:1.0 1408:1.0 
0.09663026356753654 199:1.0 484:0.8770187943010418 485:1.0 1342:1.0 1343:1.0 1344:1.0 1345:1.0 1346:1.0 1347:1.0 1348:1.0 
0.03979297520767588 75:1.0 483:0.8770187943010418 558:1.0 621:0.9045999681238591 1209:1.0 1210:1.0 1211:1.0 1212:1.0 1213:1.0 1349:1.0 1350:1.0 1351:1.0 1352:1.0 1353:1.0 1354:1.0 1355:1.0 1356:1.0 1357:1.0 1358:1.0 
1.0 
1.0 129:1.0 
0.09187541159516592 1215:1.0 1373:1.0 
1.0 
1.0 576:1.0 
0.0977945204815253 75:1.0 557:1.0 618:1.0 1317:1.0 1318:1.0 1319:1.0 1320:1.0 1321:1.0 
0.011538536070176911 16:1.0 257:1.0 621:1.0 
-0.8163004402791757 288:1.0 
-1.0 
-1.0 
-1.0 
-1.0 
-1.0 
-1.0 
-1.0 
-1.0 
-1.0 
-1.0 
-1.0 
-1.0 
-1.0 
-1.0 
-1.0 
-1.0 
-1.0 
-0.16321691884641767 289:1.0 290:1.0 291:1.0 292:1.0 293:1.0 
-1.0 
-0.8164851094693601 294:1.0 
-0.06130356715089521 5:0.5229996434472897 39:0.912067370007831 93:1.0 94:1.0 95:1.0 143:1.0 
-0.037910504076549216 5:0.9045999681238591 94:1.0 95:1.0 216:1.0 295:1.0 296:1.0 297:1.0 298:1.0 299:1.0 300:1.0 301:1.0 302:1.0 
-0.05095327550686974 315:1.0 316:1.0 317:1.0 318:1.0 628:1.0 
-0.10199504023205053 117:1.0 118:1.0 324:1.0 325:1.0 326:1.0 327:1.0 328:1.0 329:1.0 
-0.16317246527983398 336:1.0 337:1.0 338:1.0 
-0.19064062933747877 70:1.0 339:1.0 340:1.0 341:1.0 
-0.15238270409258065 146:1.0 342:1.0 343:1.0 344:1.0 345:1.0 
-0.11674443955745942 348:1.0 349:1.0 350:1.0 351:1.0 
-0.10742068732238277 147:1.0 352:1.0 353:1.0 354:1.0 355:1.0 356:1.0 357:1.0 
-0.07821209366515969 81:0.8930650019396269 97:1.0 389:1.0 390:1.0 391:1.0 629:1.0 630:1.0 
-0.11223623261557629 98:1.0 148:1.0 149:1.0 392:1.0 393:1.0 394:1.0 395:1.0 
-0.027221004510499656 39:1.0 58:1.0 150:1.0 151:1.0 404:1.0 405:1.0 406:1.0 407:1.0 
-0.14407767070955338 71:1.0 152:1.0 408:1.0 409:1.0 410:1.0 
-0.20405020876572585 414:1.0 415:1.0 416:1.0 417:1.0 
-0.07409300339645994 425:1.0 426:1.0 427:1.0 428:1.0 429:1.0 430:1.0 
-0.408145301816313 431:1.0 432:1.0 
-0.23326648171587036 435:1.0 436:1.0 631:1.0 
-0.1392911281336151 437:1.0 438:1.0 632:1.0 633:1.0 
-0.4081450170597364 634:1.0 635:1.0 
-0.17998660119853027 82:0.6791949283334257 438:1.0 636:1.0 637:1.0 
-0.12094949865882396 124:1.0 518:1.0 638:1.0 639:1.0 640:1.0 641:1.0 
-0.1350754758018752 124:0.6666666666666666 642:1.0 643:1.0 644:1.0 645:1.0 646:1.0 
-0.07923270149348606 82:1.0 437:1.0 647:1.0 648:1.0 649:1.0 650:1.0 651:1.0 
-0.06939977735502736 153:1.0 439:1.0 652:1.0 653:1.0 654:1.0 655:1.0 656:1.0 657:1.0 658:1.0 659:1.0 
-0.0641208233551839 147:1.0 440:1.0 441:1.0 660:1.0 661:1.0 662:1.0 663:1.0 664:1.0 665:1.0 
-0.09068240525822502 666:1.0 667:1.0 668:1.0 669:1.0 670:1.0 671:1.0 672:1.0 673:1.0 674:1.0 
-0.08162314156338062 675:1.0 676:1.0 677:1.0 678:1.0 679:1.0 680:1.0 681:1.0 682:1.0 683:1.0 684:1.0 
-0.06832156392602762 39:1.0 70:0.7861299042550972 217:0.8837347869786316 519:1.0 685:1.0 686:1.0 
-0.04025702661577768 97:0.8930650019396269 217:1.0 218:0.8837347869786316 520:1.0 687:1.0 688:1.0 689:1.0 690:1.0 691:1.0 692:1.0 1331:1.0 
-0.06593779527396895 440:1.0 441:1.0 442:1.0 693:1.0 694:1.0 695:1.0 696:1.0 697:1.0 1331:1.0 
-0.05420944681560853 146:1.0 154:1.0 442:1.0 698:1.0 
-0.15132706488778994 30:1.0 39:1.0 46:0.899590786432298 443:1.0 699:1.0 700:1.0 701:1.0 1325:1.0 
-0.07151376192179107 30:0.9410304984916886 46:0.7991816829055151 95:1.0 99:1.0 439:1.0 443:1.0 702:1.0 703:1.0 704:1.0 1325:1.0 
-0.010559280108754473 81:1.0 98:0.8930650019396269 99:1.0 148:1.0 149:1.0 150:1.0 705:1.0 706:1.0 707:1.0 708:1.0 709:1.0 
-0.053490363404046476 71:0.7861299042550972 151:1.0 152:1.0 444:1.0 710:1.0 711:1.0 712:1.0 713:1.0 
-0.13870456640696197 58:0.6791949283334257 99:1.0 218:1.0 714:1.0 715:1.0 
-0.35316083750897354 154:1.0 445:1.0 
-1.0 
-1.0 
-0.11116261640401282 302:1.0 303:1.0 304:1.0 305:1.0 306:1.0 307:1.0 308:1.0 
-0.11654231447084329 145:1.0 309:1.0 310:1.0 311:1.0 312:1.0 313:1.0 717:1.0 
-0.17858352819115217 314:1.0 315:1.0 316:1.0 718:1.0 
-0.10205913626031318 115:1.0 317:1.0 318:1.0 319:1.0 320:1.0 321:1.0 322:1.0 
-0.16317198372301556 330:1.0 331:1.0 332:1.0 333:1.0 334:1.0 
-0.32651646978878923 335:1.0 336:1.0 
-0.8163208775617586 346:1.0 
-0.1164360122565645 347:1.0 348:1.0 349:1.0 350:1.0 
-0.40803278882268323 358:1.0 359:1.0 
-0.13603305428686333 360:1.0 361:1.0 362:1.0 363:1.0 364:1.0 365:1.0 
-0.8164975200539012 366:1.0 
-0.14733055325531014 96:1.0 367:1.0 368:1.0 369:1.0 370:1.0 
-0.13600367993369744 371:1.0 372:1.0 373:1.0 374:1.0 375:1.0 376:1.0 
-0.2040636324322348 377:1.0 378:1.0 379:1.0 380:1.0 
-0.11656391617278458 381:1.0 382:1.0 383:1.0 384:1.0 385:1.0 386:1.0 387:1.0 
-0.07969944035723811 96:1.0 97:1.0 388:1.0 389:1.0 390:1.0 
-0.13600367993369744 396:1.0 397:1.0 398:1.0 399:1.0 400:1.0 401:1.0 
-0.027379458328483083 39:1.0 58:1.0 150:1.0 151:1.0 402:1.0 403:1.0 404:1.0 405:1.0 
-0.8164181427015943 411:1.0 
-0.13599863692298866 418:1.0 419:1.0 420:1.0 421:1.0 422:1.0 423:1.0 
-0.07433186038587825 424:1.0 425:1.0 426:1.0 427:1.0 428:1.0 429:1.0 
-0.4081602524179659 433:1.0 434:1.0 
-0.05821809384380516 435:1.0 436:1.0 448:1.0 720:1.0 721:1.0 722:1.0 
-0.06589839271288274 100:1.0 155:1.0 157:1.0 731:1.0 732:1.0 733:1.0 734:1.0 
-0.10946447056513953 450:1.0 521:1.0 735:1.0 736:1.0 737:1.0 
-0.3889315975991878 116:1.0 158:1.0 
-0.09060346924195353 451:1.0 738:1.0 739:1.0 740:1.0 741:1.0 742:1.0 743:1.0 744:1.0 
-0.09519242932002243 745:1.0 746:1.0 747:1.0 748:1.0 749:1.0 750:1.0 751:1.0 752:1.0 1324:0.5521572384283379 
-0.0835292576231792 159:1.0 452:1.0 453:1.0 753:1.0 754:1.0 755:1.0 756:1.0 
-0.06800869608149138 454:1.0 522:1.0 757:1.0 758:1.0 759:1.0 760:1.0 761:1.0 762:1.0 763:1.0 764:1.0 
-0.09159077931738537 220:1.0 452:1.0 523:1.0 765:1.0 766:1.0 767:1.0 768:1.0 769:1.0 
-0.13602234989064613 454:1.0 455:1.0 770:1.0 771:1.0 772:1.0 
-0.06802949556307791 455:1.0 524:1.0 773:1.0 774:1.0 775:1.0 776:1.0 777:1.0 778:1.0 779:1.0 780:1.0 
-0.039753653583514494 160:1.0 161:1.0 162:1.0 163:1.0 164:1.0 165:1.0 525:1.0 781:1.0 
-0.17484516377859974 178:1.0 179:1.0 180:1.0 181:1.0 
-0.07091368318414003 119:1.0 184:1.0 185:1.0 186:1.0 187:1.0 188:1.0 456:1.0 
-0.20400358294380078 221:1.0 782:1.0 783:1.0 784:1.0 
-0.15190302870319503 457:1.0 785:1.0 786:1.0 787:1.0 788:1.0 
-0.37267540738955085 103:1.0 458:1.0 
-0.07102653138348454 63:0.7861299042550972 103:1.0 792:1.0 793:1.0 794:1.0 795:1.0 
-0.1331641481630313 123:1.0 526:1.0 527:1.0 799:1.0 800:1.0 801:1.0 802:1.0 803:1.0 
-0.04891122044204295 104:1.0 456:1.0 461:1.0 804:1.0 805:1.0 806:1.0 807:1.0 808:1.0 809:1.0 810:1.0 811:1.0 812:1.0 813:1.0 
-0.05832784741921035 461:1.0 462:1.0 463:1.0 814:1.0 815:1.0 816:1.0 817:1.0 818:1.0 819:1.0 820:1.0 821:1.0 
-0.058300985873779826 462:1.0 822:1.0 823:1.0 824:1.0 825:1.0 826:1.0 827:1.0 828:1.0 829:1.0 830:1.0 831:1.0 832:1.0 833:1.0 
-0.24285115399861062 75:1.0 838:1.0 839:1.0 840:1.0 
-0.06747689748791175 463:1.0 464:1.0 841:1.0 842:1.0 843:1.0 844:1.0 845:1.0 846:1.0 847:1.0 848:1.0 
-0.20406981350811534 849:1.0 850:1.0 851:1.0 852:1.0 
-0.2040074761707005 853:1.0 854:1.0 855:1.0 856:1.0 
-0.2040214863327639 857:1.0 858:1.0 859:1.0 860:1.0 
-0.13741096339442774 123:1.0 189:1.0 222:0.8837347869786316 861:1.0 862:1.0 863:1.0 864:1.0 865:1.0 
-0.08057845039795385 123:1.0 465:1.0 468:1.0 874:1.0 875:1.0 876:1.0 877:1.0 878:1.0 879:1.0 880:1.0 881:1.0 882:1.0 
-0.045993729609038615 467:1.0 468:1.0 883:1.0 884:1.0 885:1.0 886:1.0 887:1.0 888:1.0 889:1.0 890:1.0 891:1.0 892:1.0 893:1.0 894:1.0 895:1.0 896:1.0 
-0.163265306122449 897:1.0 898:1.0 899:1.0 900:1.0 901:1.0 
-0.2720045418464504 902:1.0 903:1.0 904:1.0 
-0.8162828793192896 466:1.0 
-0.23307280854886178 123:1.0 905:1.0 906:1.0 907:1.0 908:1.0 
-0.0966124580703569 444:1.0 469:1.0 909:1.0 910:1.0 911:1.0 912:1.0 913:1.0 914:1.0 915:1.0 916:1.0 1326:1.0 
-0.026439421668550782 190:1.0 470:1.0 529:1.0 619:1.0 917:1.0 918:1.0 919:1.0 920:1.0 921:1.0 922:1.0 923:1.0 924:1.0 925:1.0 926:1.0 927:1.0 
-0.07422522537886381 471:1.0 530:1.0 928:1.0 929:1.0 930:1.0 931:1.0 932:1.0 933:1.0 934:1.0 935:1.0 936:1.0 
-0.06391225223506761 472:0.8770187943010418 937:1.0 938:1.0 939:1.0 940:1.0 941:1.0 942:1.0 943:1.0 944:1.0 945:1.0 946:1.0 947:1.0 948:1.0 
-0.03332080263044789 55:1.0 223:1.0 621:1.0 949:1.0 950:1.0 951:1.0 952:1.0 
-1.0 
-1.0 
-1.0 
-1.0 
-1.0 
-1.0 
-1.0 
-1.0 
-1.0 
-1.0 
-0.27205004595518417 531:1.0 953:1.0 954:1.0 
-0.05803111212330388 101:1.0 160:1.0 161:1.0 162:1.0 532:1.0 533:1.0 534:1.0 955:1.0 956:1.0 957:1.0 
-0.06884836738178547 163:1.0 164:1.0 165:1.0 166:1.0 167:1.0 
-0.09982076085250992 168:1.0 169:1.0 170:1.0 171:1.0 172:1.0 173:1.0 174:1.0 
-0.11663297042495231 101:1.0 175:1.0 176:1.0 177:1.0 178:1.0 
-0.027910542400116676 154:1.0 191:1.0 219:1.0 445:1.0 446:1.0 447:1.0 535:1.0 1326:1.0 
-0.030321400549924535 153:1.0 469:1.0 514:1.0 958:1.0 959:1.0 960:1.0 961:1.0 962:1.0 963:1.0 964:1.0 965:1.0 966:1.0 967:1.0 968:1.0 969:1.0 970:1.0 1330:0.8770187943010418 
-0.0683431809220881 32:1.0 159:1.0 453:1.0 473:1.0 971:1.0 972:1.0 973:1.0 974:1.0 975:1.0 976:1.0 1324:1.0 1327:0.8770187943010418 1328:0.8770187943010418 1329:0.8770187943010418 
-0.1133720786425986 60:1.0 122:1.0 536:1.0 537:1.0 977:1.0 978:1.0 979:1.0 980:1.0 981:1.0 982:1.0 983:1.0 
-0.04281380731705981 99:1.0 197:1.0 474:1.0 538:1.0 984:1.0 985:1.0 986:1.0 987:1.0 988:1.0 989:1.0 990:1.0 991:1.0 992:1.0 
-0.03842290941469131 158:1.0 474:1.0 993:1.0 994:1.0 995:1.0 996:1.0 997:1.0 998:1.0 999:1.0 1000:1.0 
-0.003424137241343002 27:1.0 50:0.9045999681238591 159:1.0 192:1.0 475:1.0 1001:1.0 1002:1.0 1003:1.0 1004:1.0 1005:1.0 1006:1.0 1007:1.0 1008:1.0 1009:1.0 1010:1.0 1011:1.0 
-0.07378398263225451 514:1.0 1012:1.0 1013:1.0 1014:1.0 1015:1.0 1016:1.0 1017:1.0 1018:1.0 1019:1.0 1020:1.0 
-0.08318100182829016 464:1.0 1021:1.0 1022:1.0 1023:1.0 1024:1.0 1025:1.0 1026:1.0 1027:1.0 1028:1.0 
-0.4081534450159449 1037:1.0 1038:1.0 
-0.1020489326158177 1039:1.0 1040:1.0 1041:1.0 1042:1.0 1043:1.0 1044:1.0 1045:1.0 1046:1.0 
-0.05281567453573921 193:0.7674694400054295 224:1.0 1047:1.0 1048:1.0 1049:1.0 1050:1.0 1051:1.0 1052:1.0 1053:1.0 1054:1.0 1055:1.0 1056:1.0 1057:1.0 1058:1.0 1059:1.0 
-0.16317549885792146 1060:1.0 1061:1.0 1062:1.0 1063:1.0 1064:1.0 
-0.10657806115279152 191:0.8837347869786316 473:1.0 539:1.0 1073:1.0 1074:1.0 1075:1.0 1076:1.0 
-0.05957758421992159 27:1.0 50:0.9045999681238591 120:0.6512041600081443 193:1.0 225:1.0 476:1.0 477:1.0 1077:1.0 1078:1.0 
-0.04952918873685291 27:0.14451960595103794 50:1.0 192:1.0 225:1.0 477:1.0 540:1.0 541:1.0 1079:1.0 1080:1.0 1081:1.0 
-0.07938630792346169 50:1.0 105:1.0 192:1.0 478:1.0 1082:1.0 1083:1.0 1084:1.0 1085:1.0 
-0.11750096428826101 165:1.0 166:1.0 167:1.0 168:1.0 
-0.25481997164578507 102:1.0 182:1.0 183:1.0 
-0.02932138857848716 73:1.0 121:1.0 184:1.0 185:1.0 186:1.0 187:1.0 188:1.0 479:1.0 1088:1.0 
-0.07175408216887837 121:1.0 226:0.8837347869786316 479:1.0 480:0.8770187943010418 1089:1.0 1090:1.0 1091:1.0 1092:1.0 
-0.01981817885790803 153:1.0 481:1.0 515:0.888888888888889 545:1.0 1097:1.0 1098:1.0 1099:1.0 1100:1.0 1101:1.0 1102:1.0 1103:1.0 1104:1.0 
-0.021683464878705604 50:1.0 120:1.0 195:1.0 476:1.0 515:1.0 1105:1.0 1106:1.0 1107:1.0 1108:1.0 1109:1.0 1110:1.0 1111:1.0 1112:1.0 1113:1.0 1114:1.0 1115:1.0 1116:1.0 1117:1.0 1118:1.0 1119:1.0 1120:1.0 
-0.08942196971286864 227:0.8837347869786316 514:1.0 1121:1.0 1122:1.0 1123:1.0 1124:1.0 1125:1.0 1126:1.0 
-0.06673875568886126 104:0.7674694400054295 195:0.8837347869786316 546:1.0 547:1.0 1127:1.0 1128:1.0 1129:1.0 1130:1.0 1131:1.0 1132:1.0 1133:1.0 1134:1.0 
-0.06519004095502112 227:1.0 481:1.0 548:1.0 1135:1.0 1136:1.0 1137:1.0 1138:1.0 1139:1.0 1140:1.0 1141:1.0 1142:1.0 
-0.06006955029946796 73:0.899590786432298 100:0.7674694400054295 157:1.0 1143:1.0 1144:1.0 1145:1.0 1146:1.0 1147:1.0 
-0.17982646746178288 72:1.0 144:0.8837347869786316 223:1.0 1148:1.0 
-0.27201019138518506 1149:1.0 1150:1.0 1151:1.0 
-1.0 
-1.0 
-1.0 
-0.5404994292399977 7:0.5603370132290427 1152:1.0 
-0.019357900611092528 7:0.912067370007831 72:0.899590786432298 155:1.0 1153:1.0 1154:1.0 1155:1.0 
-0.09186777211424271 7:0.912067370007831 549:1.0 1156:1.0 1157:1.0 1158:1.0 
-0.08762136495602811 7:1.0 93:1.0 1159:1.0 1160:1.0 
-1.0 
-0.2935128481509937 156:0.8837347869786316 449:1.0 1161:1.0 
-0.2354891700230576 450:1.0 1162:1.0 1163:1.0 
-0.2289516003215724 157:1.0 475:1.0 1164:1.0 
-0.05203354700863137 72:1.0 102:1.0 1165:1.0 1166:1.0 1167:1.0 1168:1.0 1169:1.0 
-0.1631932043492259 1176:1.0 1177:1.0 1178:1.0 1179:1.0 1180:1.0 
-0.12422032494184689 119:1.0 1181:1.0 1182:1.0 1183:1.0 1184:1.0 1185:1.0 
-0.05666630567202524 63:1.0 228:0.3395461942045168 451:1.0 457:1.0 516:1.0 552:1.0 1186:1.0 1187:1.0 1188:1.0 
-0.03469149641310225 14:1.0 196:0.6310565176608537 451:1.0 1189:1.0 1190:1.0 
-0.2995983946971947 123:1.0 1191:1.0 1192:1.0 1193:1.0 
-0.8164314972274284 528:1.0 
-1.0 
-1.0 
-1.0 
-1.0 
-1.0 
-0.7945849071251159 196:1.0 
-1.0 
-0.3982552971031818 544:1.0 545:1.0 
-0.3070442035034704 620:1.0 1197:1.0 
-0.8162658360573342 554:1.0 
-1.0 
-0.8162549767929848 459:1.0 
-0.2436326267274527 226:1.0 620:1.0 
-1.0 75:1.0 
-1.0 
-0.5300626702628908 555:1.0 1199:0.7348300142739694 
-0.8163273675526215 1195:1.0 
-0.8162654024550514 59:1.0 
-1.0 
-0.5018610186666194 55:0.698772491345997 1201:1.0 
-0.273506324222592 55:0.5983633438028465 1202:1.0 1203:1.0 
-0.4079830108730647 482:1.0 1196:1.0 
-1.0 
-0.8162451337652854 550:1.0 
-0.8163273675526215 542:1.0 
-0.8162658360573342 1204:1.0 
-1.0 
-0.8164934619459865 551:1.0 
-0.8163877961270302 553:1.0 
-0.8164885029951785 460:1.0 
-0.816256791847654 1205:1.0 
-0.5608109005563906 619:0.888888888888889 1206:0.8674150637662372 
-0.08222152648152363 529:1.0 552:1.0 1206:1.0 
-0.03355905509947043 14:0.4444444222222222 216:1.0 223:1.0 521:1.0 1192:1.0 
